Language model created by QuickLM on Thu Jul 13 04:12:40 EDT 2017
Copyright (c) 1996-2010 Carnegie Mellon University and Alexander I. Rudnicky

The model is in standard ARPA format, designed by Doug Paul while he was at MITRE.

The code that was used to produce this language model is available in Open Source.
Please visit http://www.speech.cs.cmu.edu/tools/ for more information

The (fixed) discount mass is 0.5. The backoffs are computed using the ratio method.
This model based on a corpus of 43 sentences and 51 words

\data\
ngram 1=51
ngram 2=92
ngram 3=60

\1-grams:
-0.8349 </s> -0.3010
-0.8349 <s> -0.2254
-1.9912 ALARM -0.2324
-2.4683 ARTIST -0.2324
-2.5065 BABE -0.2386
-2.4683 BABY -0.2324
-2.4683 BATTERY -0.2996
-2.4683 BE -0.2324
-2.4683 BUT -0.2324
-2.4683 DID -0.2324
-2.1673 DIRTY -0.2324
-2.4683 EVERYDAY -0.2966
-2.4683 FAVORITES -0.2324
-2.4683 FIRST -0.2324
-2.4683 FLIRT -0.2324
-2.4683 HIPPIE -0.2966
-2.4683 IN -0.2324
-2.4683 IS -0.2324
-2.4683 IT -0.2324
-2.4683 JASPER -0.2324
-2.4683 JOKE -0.2324
-2.4683 LAUGH -0.2324
-2.4683 LIFE -0.2324
-2.4683 LONELY -0.2966
-2.4683 MAKE -0.2981
-2.1673 ME -0.2981
-2.4683 MEANING -0.2324
-1.9912 MOOD -0.2324
-2.4683 NOW -0.2324
-2.4683 OF -0.2324
-2.4683 ON -0.2324
-2.4683 PARTY -0.2966
-1.9912 PLAY -0.2951
-2.1673 PLAYLIST -0.2324
-2.4683 POWER -0.2996
-2.1673 RANDOM -0.2324
-2.4683 RIGHT -0.2324
-2.4683 SAY -0.2324
-2.1673 SET -0.2951
-2.4683 SEX -0.2324
-2.4683 SONG -0.2324
-2.4683 TALK -0.2981
-2.4683 TELL -0.2981
-2.4683 TIME -0.2324
-2.4683 TODAY -0.2324
-2.4683 TOMORROW -0.2324
-2.4683 UPDATE -0.2324
-2.1673 WEATHER -0.2981
-2.4683 WHAT -0.2324
-2.4683 WHICH -0.2324
-2.4683 WITH -0.2324
-2.4683 WORK -0.2324

\2-grams:
-1.9345 <s> ALARM 0.0000
-1.9345 <s> ARTIST 0.0000
-1.9345 <s> BABE 0.0000
-1.9345 <s> BABY 0.0000
-1.9345 <s> BATTERY 0.0000
-1.9345 <s> BE 0.0000
-1.9345 <s> BUT 0.0000
-1.9345 <s> DID 0.0000
-1.9345 <s> DIRTY 0.0000
-1.9345 <s> FIRST 0.0000
-1.9345 <s> FLIRT 0.0000
-1.9345 <s> HIPPIE 0.0000
-1.9345 <s> IN 0.0000
-1.9345 <s> IS 0.0000
-1.9345 <s> IT 0.0000
-1.9345 <s> JASPER 0.0000
-1.9345 <s> LIFE 0.0000
-1.9345 <s> LONELY 0.0000
-1.9345 <s> MAKE 0.0000
-1.9345 <s> MEANING 0.0000
-1.9345 <s> NOW 0.0000
-1.9345 <s> OF 0.0000
-1.9345 <s> ON 0.0000
-1.9345 <s> PARTY 0.0000
-1.4574 <s> PLAY 0.0000
-1.6335 <s> PLAYLIST 0.0000
-1.9345 <s> RANDOM 0.0000
-1.9345 <s> RIGHT 0.0000
-1.9345 <s> SAY 0.0000
-1.6335 <s> SET 0.0000
-1.9345 <s> SEX 0.0000
-1.9345 <s> TALK 0.0000
-1.9345 <s> TELL 0.0000
-1.9345 <s> TIME 0.0000
-1.6335 <s> WEATHER 0.0000
-1.9345 <s> WHAT 0.0000
-1.9345 <s> WHICH 0.0000
-1.9345 <s> WITH 0.0000
-1.9345 <s> WORK 0.0000
-0.3010 ALARM </s> -0.3010
-0.3010 ARTIST </s> -0.3010
-0.3010 BABE </s> -0.3010
-0.3010 BABY </s> -0.3010
-0.3010 BATTERY POWER 0.0000
-0.3010 BE </s> -0.3010
-0.3010 BUT </s> -0.3010
-0.3010 DID </s> -0.3010
-0.3010 DIRTY </s> -0.3010
-0.3010 EVERYDAY ALARM 0.0000
-0.3010 FAVORITES </s> -0.3010
-0.3010 FIRST </s> -0.3010
-0.3010 FLIRT </s> -0.3010
-0.3010 HIPPIE MOOD 0.0000
-0.3010 IN </s> -0.3010
-0.3010 IS </s> -0.3010
-0.3010 IT </s> -0.3010
-0.3010 JASPER </s> -0.3010
-0.3010 JOKE </s> -0.3010
-0.3010 LAUGH </s> -0.3010
-0.3010 LIFE </s> -0.3010
-0.3010 LONELY MOOD 0.0000
-0.3010 MAKE ME -0.1761
-0.6021 ME JOKE 0.0000
-0.6021 ME LAUGH 0.0000
-0.3010 MEANING </s> -0.3010
-0.3010 MOOD </s> -0.3010
-0.3010 NOW </s> -0.3010
-0.3010 OF </s> -0.3010
-0.3010 ON </s> -0.3010
-0.3010 PARTY MOOD 0.0000
-0.7782 PLAY FAVORITES 0.0000
-0.7782 PLAY RANDOM 0.0000
-0.7782 PLAY SONG 0.0000
-0.3010 PLAYLIST </s> -0.3010
-0.3010 POWER UPDATE 0.0000
-0.3010 RANDOM </s> -0.3010
-0.3010 RIGHT </s> -0.3010
-0.3010 SAY </s> -0.3010
-0.6021 SET ALARM 0.0000
-0.6021 SET EVERYDAY 0.0000
-0.3010 SEX </s> -0.3010
-0.3010 SONG </s> -0.3010
-0.3010 TALK DIRTY 0.0000
-0.3010 TELL ME -0.1761
-0.3010 TIME </s> -0.3010
-0.3010 TODAY </s> -0.3010
-0.3010 TOMORROW </s> -0.3010
-0.3010 UPDATE </s> -0.3010
-0.6021 WEATHER TODAY 0.0000
-0.6021 WEATHER TOMORROW 0.0000
-0.3010 WHAT </s> -0.3010
-0.3010 WHICH </s> -0.3010
-0.3010 WITH </s> -0.3010
-0.3010 WORK </s> -0.3010

\3-grams:
-0.3010 <s> ALARM </s>
-0.3010 <s> ARTIST </s>
-0.3010 <s> BABE </s>
-0.3010 <s> BABY </s>
-0.3010 <s> BATTERY POWER
-0.3010 <s> BE </s>
-0.3010 <s> BUT </s>
-0.3010 <s> DID </s>
-0.3010 <s> DIRTY </s>
-0.3010 <s> FIRST </s>
-0.3010 <s> FLIRT </s>
-0.3010 <s> HIPPIE MOOD
-0.3010 <s> IN </s>
-0.3010 <s> IS </s>
-0.3010 <s> IT </s>
-0.3010 <s> JASPER </s>
-0.3010 <s> LIFE </s>
-0.3010 <s> LONELY MOOD
-0.3010 <s> MAKE ME
-0.3010 <s> MEANING </s>
-0.3010 <s> NOW </s>
-0.3010 <s> OF </s>
-0.3010 <s> ON </s>
-0.3010 <s> PARTY MOOD
-0.7782 <s> PLAY FAVORITES
-0.7782 <s> PLAY RANDOM
-0.7782 <s> PLAY SONG
-0.3010 <s> PLAYLIST </s>
-0.3010 <s> RANDOM </s>
-0.3010 <s> RIGHT </s>
-0.3010 <s> SAY </s>
-0.6021 <s> SET ALARM
-0.6021 <s> SET EVERYDAY
-0.3010 <s> SEX </s>
-0.3010 <s> TALK DIRTY
-0.3010 <s> TELL ME
-0.3010 <s> TIME </s>
-0.6021 <s> WEATHER TODAY
-0.6021 <s> WEATHER TOMORROW
-0.3010 <s> WHAT </s>
-0.3010 <s> WHICH </s>
-0.3010 <s> WITH </s>
-0.3010 <s> WORK </s>
-0.3010 BATTERY POWER UPDATE
-0.3010 EVERYDAY ALARM </s>
-0.3010 HIPPIE MOOD </s>
-0.3010 LONELY MOOD </s>
-0.3010 MAKE ME LAUGH
-0.3010 ME JOKE </s>
-0.3010 ME LAUGH </s>
-0.3010 PARTY MOOD </s>
-0.3010 PLAY FAVORITES </s>
-0.3010 PLAY RANDOM </s>
-0.3010 PLAY SONG </s>
-0.3010 POWER UPDATE </s>
-0.3010 SET ALARM </s>
-0.3010 SET EVERYDAY ALARM
-0.3010 TALK DIRTY </s>
-0.3010 TELL ME JOKE
-0.3010 WEATHER TODAY </s>
-0.3010 WEATHER TOMORROW </s>

\end\
